<?xml version="1.0"?>
<opencv_storage>
<cascade>
  <stageType>BOOST</stageType>
  <featureType>HAAR</featureType>
  <height>20</height>
  <width>20</width>
  <stageParams>
    <boostType>GAB</boostType>
    <minHitRate>9.9500000476837158e-01</minHitRate>
    <maxFalseAlarm>5.0000000000000000e-01</maxFalseAlarm>
    <weightTrimRate>9.4999999999999996e-01</weightTrimRate>
    <maxDepth>1</maxDepth>
    <maxWeakCount>100</maxWeakCount></stageParams>
  <featureParams>
    <maxCatCount>0</maxCatCount>
    <featSize>1</featSize>
    <mode>ALL</mode></featureParams>
  <stageNum>6</stageNum>
  <stages>
    <!-- stage 0 -->
    <_>
      <maxWeakCount>3</maxWeakCount>
      <stageThreshold>-1.5343981981277466e+00</stageThreshold>
      <weakClassifiers>
        <_>
          <internalNodes>
            0 -1 12 -7.8795529901981354e-02</internalNodes>
          <leafValues>
            7.0297032594680786e-01 -9.8808735609054565e-01</leafValues></_>
        <_>
          <internalNodes>
            0 -1 3 -7.2327218949794769e-02</internalNodes>
          <leafValues>
            6.5685474872589111e-01 -9.8241806030273438e-01</leafValues></_>
        <_>
          <internalNodes>
            0 -1 0 9.1513097286224365e-02</internalNodes>
          <leafValues>
            -9.8128253221511841e-01 4.3610721826553345e-01</leafValues></_></weakClassifiers></_>
    <!-- stage 1 -->
    <_>
      <maxWeakCount>2</maxWeakCount>
      <stageThreshold>-6.1157315969467163e-01</stageThreshold>
      <weakClassifiers>
        <_>
          <internalNodes>
            0 -1 15 -1.3648141920566559e-01</internalNodes>
          <leafValues>
            3.9837399125099182e-01 -9.8799997568130493e-01</leafValues></_>
        <_>
          <internalNodes>
            0 -1 1 -1.9031542539596558e-01</internalNodes>
          <leafValues>
            3.7642681598663330e-01 -9.9401694536209106e-01</leafValues></_></weakClassifiers></_>
    <!-- stage 2 -->
    <_>
      <maxWeakCount>3</maxWeakCount>
      <stageThreshold>-1.4570355415344238e+00</stageThreshold>
      <weakClassifiers>
        <_>
          <internalNodes>
            0 -1 18 -5.6796457618474960e-02</internalNodes>
          <leafValues>
            5.5294120311737061e-01 -9.7498351335525513e-01</leafValues></_>
        <_>
          <internalNodes>
            0 -1 6 -9.5679074525833130e-02</internalNodes>
          <leafValues>
            4.5421880483627319e-01 -9.6404403448104858e-01</leafValues></_>
        <_>
          <internalNodes>
            0 -1 9 1.8183272331953049e-02</internalNodes>
          <leafValues>
            -9.3627083301544189e-01 6.1357903480529785e-01</leafValues></_></weakClassifiers></_>
    <!-- stage 3 -->
    <_>
      <maxWeakCount>4</maxWeakCount>
      <stageThreshold>-2.4851858615875244e+00</stageThreshold>
      <weakClassifiers>
        <_>
          <internalNodes>
            0 -1 17 -2.5837488472461700e-02</internalNodes>
          <leafValues>
            -1.9597989320755005e-01 -9.8358410596847534e-01</leafValues></_>
        <_>
          <internalNodes>
            0 -1 10 -4.0818180888891220e-02</internalNodes>
          <leafValues>
            1.4491087198257446e-01 -9.3805932998657227e-01</leafValues></_>
        <_>
          <internalNodes>
            0 -1 13 1.5433067455887794e-02</internalNodes>
          <leafValues>
            -9.4234526157379150e-01 3.6962738633155823e-01</leafValues></_>
        <_>
          <internalNodes>
            0 -1 4 2.8623126447200775e-02</internalNodes>
          <leafValues>
            -9.3316972255706787e-01 4.5998242497444153e-01</leafValues></_></weakClassifiers></_>
    <!-- stage 4 -->
    <_>
      <maxWeakCount>5</maxWeakCount>
      <stageThreshold>-3.0186302661895752e+00</stageThreshold>
      <weakClassifiers>
        <_>
          <internalNodes>
            0 -1 19 -1.2052090466022491e-01</internalNodes>
          <leafValues>
            -2.7748692035675049e-01 -9.7612553834915161e-01</leafValues></_>
        <_>
          <internalNodes>
            0 -1 11 -3.5871975123882294e-02</internalNodes>
          <leafValues>
            2.0531412959098816e-01 -9.3622159957885742e-01</leafValues></_>
        <_>
          <internalNodes>
            0 -1 5 3.0114632099866867e-02</internalNodes>
          <leafValues>
            -8.9564663171768188e-01 2.8551164269447327e-01</leafValues></_>
        <_>
          <internalNodes>
            0 -1 8 -2.4104116484522820e-02</internalNodes>
          <leafValues>
            6.5163272619247437e-01 -6.7117077112197876e-01</leafValues></_>
        <_>
          <internalNodes>
            0 -1 16 -1.9544698297977448e-02</internalNodes>
          <leafValues>
            4.6053412556648254e-01 -9.6249544620513916e-01</leafValues></_></weakClassifiers></_>
    <!-- stage 5 -->
    <_>
      <maxWeakCount>4</maxWeakCount>
      <stageThreshold>-2.1924991607666016e+00</stageThreshold>
      <weakClassifiers>
        <_>
          <internalNodes>
            0 -1 20 2.8886470943689346e-02</internalNodes>
          <leafValues>
            -9.7726488113403320e-01 -3.5454544425010681e-01</leafValues></_>
        <_>
          <internalNodes>
            0 -1 2 -4.9769677221775055e-02</internalNodes>
          <leafValues>
            4.8131953924894333e-02 -9.5564776659011841e-01</leafValues></_>
        <_>
          <internalNodes>
            0 -1 7 -3.9253398776054382e-02</internalNodes>
          <leafValues>
            5.7691079378128052e-01 -7.8082239627838135e-01</leafValues></_>
        <_>
          <internalNodes>
            0 -1 14 -3.8384526968002319e-01</internalNodes>
          <leafValues>
            5.5118817090988159e-01 -8.3649724721908569e-01</leafValues></_></weakClassifiers></_></stages>
  <features>
    <_>
      <rects>
        <_>
          0 0 12 12 -1.</_>
        <_>
          0 0 6 6 2.</_>
        <_>
          6 6 6 6 2.</_></rects>
      <tilted>0</tilted></_>
    <_>
      <rects>
        <_>
          0 2 12 17 -1.</_>
        <_>
          3 2 6 17 2.</_></rects>
      <tilted>0</tilted></_>
    <_>
      <rects>
        <_>
          0 4 12 2 -1.</_>
        <_>
          3 4 6 2 2.</_></rects>
      <tilted>0</tilted></_>
    <_>
      <rects>
        <_>
          1 9 8 10 -1.</_>
        <_>
          1 9 4 5 2.</_>
        <_>
          5 14 4 5 2.</_></rects>
      <tilted>0</tilted></_>
    <_>
      <rects>
        <_>
          1 15 16 4 -1.</_>
        <_>
          1 17 16 2 2.</_></rects>
      <tilted>0</tilted></_>
    <_>
      <rects>
        <_>
          2 2 4 10 -1.</_>
        <_>
          2 2 2 5 2.</_>
        <_>
          4 7 2 5 2.</_></rects>
      <tilted>0</tilted></_>
    <_>
      <rects>
        <_>
          3 0 6 12 -1.</_>
        <_>
          3 3 6 6 2.</_></rects>
      <tilted>0</tilted></_>
    <_>
      <rects>
        <_>
          4 10 5 4 -1.</_>
        <_>
          3 11 5 2 2.</_></rects>
      <tilted>1</tilted></_>
    <_>
      <rects>
        <_>
          5 0 11 2 -1.</_>
        <_>
          5 1 11 1 2.</_></rects>
      <tilted>0</tilted></_>
    <_>
      <rects>
        <_>
          7 9 4 2 -1.</_>
        <_>
          7 9 2 2 2.</_></rects>
      <tilted>1</tilted></_>
    <_>
      <rects>
        <_>
          8 1 10 4 -1.</_>
        <_>
          8 1 5 2 2.</_>
        <_>
          13 3 5 2 2.</_></rects>
      <tilted>0</tilted></_>
    <_>
      <rects>
        <_>
          9 1 8 4 -1.</_>
        <_>
          9 1 4 2 2.</_>
        <_>
          13 3 4 2 2.</_></rects>
      <tilted>0</tilted></_>
    <_>
      <rects>
        <_>
          9 1 10 6 -1.</_>
        <_>
          9 1 5 3 2.</_>
        <_>
          14 4 5 3 2.</_></rects>
      <tilted>0</tilted></_>
    <_>
      <rects>
        <_>
          10 10 3 10 -1.</_>
        <_>
          11 10 1 10 3.</_></rects>
      <tilted>0</tilted></_>
    <_>
      <rects>
        <_>
          11 1 9 18 -1.</_>
        <_>
          14 7 3 6 9.</_></rects>
      <tilted>0</tilted></_>
    <_>
      <rects>
        <_>
          11 2 8 15 -1.</_>
        <_>
          13 2 4 15 2.</_></rects>
      <tilted>0</tilted></_>
    <_>
      <rects>
        <_>
          11 13 6 5 -1.</_>
        <_>
          13 13 2 5 3.</_></rects>
      <tilted>0</tilted></_>
    <_>
      <rects>
        <_>
          15 0 2 4 -1.</_>
        <_>
          14 1 2 2 2.</_></rects>
      <tilted>1</tilted></_>
    <_>
      <rects>
        <_>
          17 0 1 20 -1.</_>
        <_>
          17 5 1 10 2.</_></rects>
      <tilted>0</tilted></_>
    <_>
      <rects>
        <_>
          17 3 3 15 -1.</_>
        <_>
          18 8 1 5 9.</_></rects>
      <tilted>0</tilted></_>
    <_>
      <rects>
        <_>
          18 4 2 10 -1.</_>
        <_>
          19 4 1 10 2.</_></rects>
      <tilted>0</tilted></_></features></cascade>
</opencv_storage>
