<?xml version="1.0"?>
<opencv_storage>
<cascade>
  <stageType>BOOST</stageType>
  <featureType>HAAR</featureType>
  <height>20</height>
  <width>20</width>
  <stageParams>
    <boostType>GAB</boostType>
    <minHitRate>9.9500000476837158e-01</minHitRate>
    <maxFalseAlarm>5.0000000000000000e-01</maxFalseAlarm>
    <weightTrimRate>9.4999999999999996e-01</weightTrimRate>
    <maxDepth>1</maxDepth>
    <maxWeakCount>100</maxWeakCount></stageParams>
  <featureParams>
    <maxCatCount>0</maxCatCount>
    <featSize>1</featSize>
    <mode>ALL</mode></featureParams>
  <stageNum>16</stageNum>
  <stages>
    <!-- stage 0 -->
    <_>
      <maxWeakCount>6</maxWeakCount>
      <stageThreshold>-1.5405722856521606e+00</stageThreshold>
      <weakClassifiers>
        <_>
          <internalNodes>
            0 -1 16 4.4344991445541382e-02</internalNodes>
          <leafValues>
            -6.8772560358047485e-01 8.3149605989456177e-01</leafValues></_>
        <_>
          <internalNodes>
            0 -1 177 -6.7606996744871140e-03</internalNodes>
          <leafValues>
            5.7876384258270264e-01 -7.4934881925582886e-01</leafValues></_>
        <_>
          <internalNodes>
            0 -1 78 -1.0732893832027912e-02</internalNodes>
          <leafValues>
            4.0450900793075562e-01 -6.7165732383728027e-01</leafValues></_>
        <_>
          <internalNodes>
            0 -1 109 -7.3451264761388302e-03</internalNodes>
          <leafValues>
            4.0868270397186279e-01 -5.8289080858230591e-01</leafValues></_>
        <_>
          <internalNodes>
            0 -1 3 -4.7650538384914398e-02</internalNodes>
          <leafValues>
            6.9615501165390015e-01 -3.1645834445953369e-01</leafValues></_>
        <_>
          <internalNodes>
            0 -1 10 -4.1226632893085480e-03</internalNodes>
          <leafValues>
            3.9134234189987183e-01 -4.8783773183822632e-01</leafValues></_></weakClassifiers></_>
    <!-- stage 1 -->
    <_>
      <maxWeakCount>5</maxWeakCount>
      <stageThreshold>-9.6903622150421143e-01</stageThreshold>
      <weakClassifiers>
        <_>
          <internalNodes>
            0 -1 183 -6.4789906144142151e-02</internalNodes>
          <leafValues>
            7.6882660388946533e-01 -5.3910613059997559e-01</leafValues></_>
        <_>
          <internalNodes>
            0 -1 64 -6.3954442739486694e-02</internalNodes>
          <leafValues>
            7.3692202568054199e-01 -3.2666063308715820e-01</leafValues></_>
        <_>
          <internalNodes>
            0 -1 23 2.5547400116920471e-01</internalNodes>
          <leafValues>
            -3.9307361841201782e-01 6.0969787836074829e-01</leafValues></_>
        <_>
          <internalNodes>
            0 -1 130 -3.8042559754103422e-03</internalNodes>
          <leafValues>
            5.8788740634918213e-01 -3.8216462731361389e-01</leafValues></_>
        <_>
          <internalNodes>
            0 -1 0 -2.9840990900993347e-01</internalNodes>
          <leafValues>
            7.5207918882369995e-01 -2.9808327555656433e-01</leafValues></_></weakClassifiers></_>
    <!-- stage 2 -->
    <_>
      <maxWeakCount>8</maxWeakCount>
      <stageThreshold>-1.2806930541992188e+00</stageThreshold>
      <weakClassifiers>
        <_>
          <internalNodes>
            0 -1 190 -7.1304932236671448e-02</internalNodes>
          <leafValues>
            7.6763063669204712e-01 -4.3334189057350159e-01</leafValues></_>
        <_>
          <internalNodes>
            0 -1 156 -5.7921163737773895e-02</internalNodes>
          <leafValues>
            -8.4193766117095947e-01 3.2797962427139282e-01</leafValues></_>
        <_>
          <internalNodes>
            0 -1 178 -5.6119848042726517e-02</internalNodes>
          <leafValues>
            6.4131003618240356e-01 -3.5805943608283997e-01</leafValues></_>
        <_>
          <internalNodes>
            0 -1 146 1.0084514506161213e-03</internalNodes>
          <leafValues>
            2.5703370571136475e-01 -7.8418838977813721e-01</leafValues></_>
        <_>
          <internalNodes>
            0 -1 105 -3.3407874405384064e-02</internalNodes>
          <leafValues>
            3.7795999646186829e-01 -4.7621321678161621e-01</leafValues></_>
        <_>
          <internalNodes>
            0 -1 64 -9.6665292978286743e-02</internalNodes>
          <leafValues>
            6.8973487615585327e-01 -2.5236001610755920e-01</leafValues></_>
        <_>
          <internalNodes>
            0 -1 50 6.4427867531776428e-02</internalNodes>
          <leafValues>
            -2.7595904469490051e-01 5.4368901252746582e-01</leafValues></_>
        <_>
          <internalNodes>
            0 -1 82 -1.6238247044384480e-03</internalNodes>
          <leafValues>
            -5.9024024009704590e-01 2.8049647808074951e-01</leafValues></_></weakClassifiers></_>
    <!-- stage 3 -->
    <_>
      <maxWeakCount>10</maxWeakCount>
      <stageThreshold>-1.1489583253860474e+00</stageThreshold>
      <weakClassifiers>
        <_>
          <internalNodes>
            0 -1 197 -1.7277531325817108e-02</internalNodes>
          <leafValues>
            5.7713830471038818e-01 -4.8126116394996643e-01</leafValues></_>
        <_>
          <internalNodes>
            0 -1 84 -1.9257269799709320e-02</internalNodes>
          <leafValues>
            6.2037444114685059e-01 -3.0785313248634338e-01</leafValues></_>
        <_>
          <internalNodes>
            0 -1 154 -2.1449536085128784e-02</internalNodes>
          <leafValues>
            5.8549302816390991e-01 -2.9054188728332520e-01</leafValues></_>
        <_>
          <internalNodes>
            0 -1 102 -3.1942248344421387e-02</internalNodes>
          <leafValues>
            4.4542983174324036e-01 -3.8356304168701172e-01</leafValues></_>
        <_>
          <internalNodes>
            0 -1 181 -1.9389413297176361e-02</internalNodes>
          <leafValues>
            7.2956496477127075e-01 -1.9489721953868866e-01</leafValues></_>
        <_>
          <internalNodes>
            0 -1 151 -3.6749792343471199e-05</internalNodes>
          <leafValues>
            3.0656293034553528e-01 -5.2820307016372681e-01</leafValues></_>
        <_>
          <internalNodes>
            0 -1 112 6.7991379182785749e-04</internalNodes>
          <leafValues>
            1.8837681412696838e-01 -7.8388452529907227e-01</leafValues></_>
        <_>
          <internalNodes>
            0 -1 94 -9.4284545630216599e-03</internalNodes>
          <leafValues>
            3.9457875490188599e-01 -4.0842062234878540e-01</leafValues></_>
        <_>
          <internalNodes>
            0 -1 11 -2.9044747352600098e-01</internalNodes>
          <leafValues>
            6.2608146667480469e-01 -2.2138501703739166e-01</leafValues></_>
        <_>
          <internalNodes>
            0 -1 1 3.9106300473213196e-01</internalNodes>
          <leafValues>
            -1.5320223569869995e-01 7.8750348091125488e-01</leafValues></_></weakClassifiers></_>
    <!-- stage 4 -->
    <_>
      <maxWeakCount>10</maxWeakCount>
      <stageThreshold>-1.1561411619186401e+00</stageThreshold>
      <weakClassifiers>
        <_>
          <internalNodes>
            0 -1 85 -3.5978585481643677e-02</internalNodes>
          <leafValues>
            6.2716764211654663e-01 -3.8965153694152832e-01</leafValues></_>
        <_>
          <internalNodes>
            0 -1 207 -6.4203962683677673e-02</internalNodes>
          <leafValues>
            4.2516264319419861e-01 -3.9206945896148682e-01</leafValues></_>
        <_>
          <internalNodes>
            0 -1 19 -5.6207751185866073e-05</internalNodes>
          <leafValues>
            2.4932059645652771e-01 -6.2033611536026001e-01</leafValues></_>
        <_>
          <internalNodes>
            0 -1 49 -3.8488558493554592e-03</internalNodes>
          <leafValues>
            3.2120254635810852e-01 -4.7541210055351257e-01</leafValues></_>
        <_>
          <internalNodes>
            0 -1 216 -1.9153652712702751e-02</internalNodes>
          <leafValues>
            6.7850023508071899e-01 -2.4148356914520264e-01</leafValues></_>
        <_>
          <internalNodes>
            0 -1 142 -2.3446171544492245e-03</internalNodes>
          <leafValues>
            6.8188714981079102e-01 -2.7685770392417908e-01</leafValues></_>
        <_>
          <internalNodes>
            0 -1 57 1.8374563660472631e-03</internalNodes>
          <leafValues>
            2.0709307491779327e-01 -8.4917241334915161e-01</leafValues></_>
        <_>
          <internalNodes>
            0 -1 113 1.1490040924400091e-03</internalNodes>
          <leafValues>
            1.5766496956348419e-01 -6.8441587686538696e-01</leafValues></_>
        <_>
          <internalNodes>
            0 -1 38 -1.5783157199621201e-02</internalNodes>
          <leafValues>
            5.5021977424621582e-01 -2.1873405575752258e-01</leafValues></_>
        <_>
          <internalNodes>
            0 -1 161 3.2924506813287735e-03</internalNodes>
          <leafValues>
            -3.3359271287918091e-01 3.5986760258674622e-01</leafValues></_></weakClassifiers></_>
    <!-- stage 5 -->
    <_>
      <maxWeakCount>13</maxWeakCount>
      <stageThreshold>-1.2796773910522461e+00</stageThreshold>
      <weakClassifiers>
        <_>
          <internalNodes>
            0 -1 12 -1.1106668040156364e-02</internalNodes>
          <leafValues>
            5.5178415775299072e-01 -4.0437465906143188e-01</leafValues></_>
        <_>
          <internalNodes>
            0 -1 183 -7.9630963504314423e-02</internalNodes>
          <leafValues>
            5.0602662563323975e-01 -2.9182857275009155e-01</leafValues></_>
        <_>
          <internalNodes>
            0 -1 72 -1.4351523714140058e-03</internalNodes>
          <leafValues>
            1.9401416182518005e-01 -7.3194175958633423e-01</leafValues></_>
        <_>
          <internalNodes>
            0 -1 89 2.5560283102095127e-03</internalNodes>
          <leafValues>
            1.8516902625560760e-01 -7.2667437791824341e-01</leafValues></_>
        <_>
          <internalNodes>
            0 -1 44 -2.1979394368827343e-03</internalNodes>
          <leafValues>
            -7.1580702066421509e-01 1.1988711357116699e-01</leafValues></_>
        <_>
          <internalNodes>
            0 -1 98 7.3466316098347306e-04</internalNodes>
          <leafValues>
            1.5401613712310791e-01 -8.0721735954284668e-01</leafValues></_>
        <_>
          <internalNodes>
            0 -1 133 3.1068842508830130e-04</internalNodes>
          <leafValues>
            -6.2480628490447998e-01 1.9342765212059021e-01</leafValues></_>
        <_>
          <internalNodes>
            0 -1 196 -1.2965634465217590e-02</internalNodes>
          <leafValues>
            4.9649512767791748e-01 -2.6114293932914734e-01</leafValues></_>
        <_>
          <internalNodes>
            0 -1 184 1.9089315086603165e-02</internalNodes>
          <leafValues>
            -2.0001009106636047e-01 7.2751241922378540e-01</leafValues></_>
        <_>
          <internalNodes>
            0 -1 88 -3.5810838453471661e-03</internalNodes>
          <leafValues>
            -7.7291727066040039e-01 1.7223459482192993e-01</leafValues></_>
        <_>
          <internalNodes>
            0 -1 185 3.3732661977410316e-03</internalNodes>
          <leafValues>
            1.1831620335578918e-01 -7.6854795217514038e-01</leafValues></_>
        <_>
          <internalNodes>
            0 -1 127 -3.6502133589237928e-03</internalNodes>
          <leafValues>
            3.6966240406036377e-01 -3.2092341780662537e-01</leafValues></_>
        <_>
          <internalNodes>
            0 -1 74 2.1439144387841225e-02</internalNodes>
          <leafValues>
            2.1028476953506470e-01 -6.8353813886642456e-01</leafValues></_></weakClassifiers></_>
    <!-- stage 6 -->
    <_>
      <maxWeakCount>13</maxWeakCount>
      <stageThreshold>-1.5210515260696411e+00</stageThreshold>
      <weakClassifiers>
        <_>
          <internalNodes>
            0 -1 30 -7.3448859155178070e-02</internalNodes>
          <leafValues>
            5.0810372829437256e-01 -4.2049470543861389e-01</leafValues></_>
        <_>
          <internalNodes>
            0 -1 100 1.3238312676548958e-03</internalNodes>
          <leafValues>
            -5.0273334980010986e-01 3.3742564916610718e-01</leafValues></_>
        <_>
          <internalNodes>
            0 -1 60 -1.1739620938897133e-02</internalNodes>
          <leafValues>
            5.2816158533096313e-01 -2.4396620690822601e-01</leafValues></_>
        <_>
          <internalNodes>
            0 -1 162 4.6316804364323616e-03</internalNodes>
          <leafValues>
            -3.6339908838272095e-01 3.8219109177589417e-01</leafValues></_>
        <_>
          <internalNodes>
            0 -1 195 2.4211782962083817e-02</internalNodes>
          <leafValues>
            -2.9119044542312622e-01 4.5454370975494385e-01</leafValues></_>
        <_>
          <internalNodes>
            0 -1 56 -9.5096486620604992e-04</internalNodes>
          <leafValues>
            -5.3800028562545776e-01 2.1497492492198944e-01</leafValues></_>
        <_>
          <internalNodes>
            0 -1 212 5.0227777101099491e-03</internalNodes>
          <leafValues>
            -2.7647736668586731e-01 4.2438155412673950e-01</leafValues></_>
        <_>
          <internalNodes>
            0 -1 126 8.8275074958801270e-03</internalNodes>
          <leafValues>
            -5.0108629465103149e-01 2.4771063029766083e-01</leafValues></_>
        <_>
          <internalNodes>
            0 -1 59 1.7811372876167297e-02</internalNodes>
          <leafValues>
            -2.2246249020099640e-01 5.9078717231750488e-01</leafValues></_>
        <_>
          <internalNodes>
            0 -1 181 -1.7765149474143982e-02</internalNodes>
          <leafValues>
            5.7138812541961670e-01 -1.5662683546543121e-01</leafValues></_>
        <_>
          <internalNodes>
            0 -1 193 1.0743468999862671e-02</internalNodes>
          <leafValues>
            1.5620638430118561e-01 -7.3776453733444214e-01</leafValues></_>
        <_>
          <internalNodes>
            0 -1 167 -2.3707337677478790e-03</internalNodes>
          <leafValues>
            2.5648543238639832e-01 -4.0737569332122803e-01</leafValues></_>
        <_>
          <internalNodes>
            0 -1 71 5.7744678109884262e-02</internalNodes>
          <leafValues>
            -1.5503035485744476e-01 6.8169730901718140e-01</leafValues></_></weakClassifiers></_>
    <!-- stage 7 -->
    <_>
      <maxWeakCount>13</maxWeakCount>
      <stageThreshold>-1.1300934553146362e+00</stageThreshold>
      <weakClassifiers>
        <_>
          <internalNodes>
            0 -1 171 -2.8103780001401901e-02</internalNodes>
          <leafValues>
            4.9546578526496887e-01 -4.0023270249366760e-01</leafValues></_>
        <_>
          <internalNodes>
            0 -1 62 -2.2901125252246857e-02</internalNodes>
          <leafValues>
            6.4996707439422607e-01 -2.0563887059688568e-01</leafValues></_>
        <_>
          <internalNodes>
            0 -1 201 -7.6601072214543819e-04</internalNodes>
          <leafValues>
            -6.3569474220275879e-01 2.0563857257366180e-01</leafValues></_>
        <_>
          <internalNodes>
            0 -1 201 8.8214140851050615e-04</internalNodes>
          <leafValues>
            2.2020782530307770e-01 -7.0237934589385986e-01</leafValues></_>
        <_>
          <internalNodes>
            0 -1 182 1.3712751679122448e-02</internalNodes>
          <leafValues>
            -2.9207465052604675e-01 5.1932734251022339e-01</leafValues></_>
        <_>
          <internalNodes>
            0 -1 37 -4.9090478569269180e-02</internalNodes>
          <leafValues>
            -7.1902424097061157e-01 2.5319004058837891e-01</leafValues></_>
        <_>
          <internalNodes>
            0 -1 116 -1.5760760754346848e-02</internalNodes>
          <leafValues>
            3.8840460777282715e-01 -3.2681009173393250e-01</leafValues></_>
        <_>
          <internalNodes>
            0 -1 128 1.2155115604400635e-02</internalNodes>
          <leafValues>
            -3.9448264241218567e-01 3.0747035145759583e-01</leafValues></_>
        <_>
          <internalNodes>
            0 -1 185 -3.6643301136791706e-03</internalNodes>
          <leafValues>
            -5.9048831462860107e-01 2.2196815907955170e-01</leafValues></_>
        <_>
          <internalNodes>
            0 -1 20 -2.0680459783761762e-05</internalNodes>
          <leafValues>
            2.4311995506286621e-01 -4.6472281217575073e-01</leafValues></_>
        <_>
          <internalNodes>
            0 -1 176 1.2921378947794437e-03</internalNodes>
          <leafValues>
            1.2963443994522095e-01 -7.0296943187713623e-01</leafValues></_>
        <_>
          <internalNodes>
            0 -1 93 -2.7734447270631790e-02</internalNodes>
          <leafValues>
            4.6375498175621033e-01 -2.2771812975406647e-01</leafValues></_>
        <_>
          <internalNodes>
            0 -1 192 -1.5211063437163830e-02</internalNodes>
          <leafValues>
            5.3082436323165894e-01 -1.8282085657119751e-01</leafValues></_></weakClassifiers></_>
    <!-- stage 8 -->
    <_>
      <maxWeakCount>15</maxWeakCount>
      <stageThreshold>-1.4193563461303711e+00</stageThreshold>
      <weakClassifiers>
        <_>
          <internalNodes>
            0 -1 179 -5.3217723965644836e-02</internalNodes>
          <leafValues>
            5.2470993995666504e-01 -3.9440202713012695e-01</leafValues></_>
        <_>
          <internalNodes>
            0 -1 153 -9.2634530737996101e-03</internalNodes>
          <leafValues>
            3.1719225645065308e-01 -4.3808144330978394e-01</leafValues></_>
        <_>
          <internalNodes>
            0 -1 42 -1.8936624750494957e-02</internalNodes>
          <leafValues>
            6.7693912982940674e-01 -1.6642409563064575e-01</leafValues></_>
        <_>
          <internalNodes>
            0 -1 114 -1.1595378164201975e-03</internalNodes>
          <leafValues>
            -7.0760756731033325e-01 1.3536803424358368e-01</leafValues></_>
        <_>
          <internalNodes>
            0 -1 147 7.1701931301504374e-04</internalNodes>
          <leafValues>
            1.4791814982891083e-01 -6.8620848655700684e-01</leafValues></_>
        <_>
          <internalNodes>
            0 -1 92 1.1726316995918751e-02</internalNodes>
          <leafValues>
            1.2144761532545090e-01 -7.6685106754302979e-01</leafValues></_>
        <_>
          <internalNodes>
            0 -1 169 -1.2295530177652836e-03</internalNodes>
          <leafValues>
            3.0269688367843628e-01 -3.3012181520462036e-01</leafValues></_>
        <_>
          <internalNodes>
            0 -1 15 -2.5845616619335487e-05</internalNodes>
          <leafValues>
            1.5831860899925232e-01 -5.6900918483734131e-01</leafValues></_>
        <_>
          <internalNodes>
            0 -1 143 -4.7235764563083649e-02</internalNodes>
          <leafValues>
            3.3126780390739441e-01 -2.6910161972045898e-01</leafValues></_>
        <_>
          <internalNodes>
            0 -1 191 -5.3675742819905281e-03</internalNodes>
          <leafValues>
            4.4077965617179871e-01 -2.4397863447666168e-01</leafValues></_>
        <_>
          <internalNodes>
            0 -1 138 1.8615359294926748e-05</internalNodes>
          <leafValues>
            -3.0986359715461731e-01 3.3728879690170288e-01</leafValues></_>
        <_>
          <internalNodes>
            0 -1 137 -3.6022029817104340e-02</internalNodes>
          <leafValues>
            3.9612755179405212e-01 -3.0463445186614990e-01</leafValues></_>
        <_>
          <internalNodes>
            0 -1 174 -3.1654911581426859e-03</internalNodes>
          <leafValues>
            -7.2321557998657227e-01 1.5046948194503784e-01</leafValues></_>
        <_>
          <internalNodes>
            0 -1 187 2.7991798706352711e-03</internalNodes>
          <leafValues>
            8.9882582426071167e-02 -8.6552876234054565e-01</leafValues></_>
        <_>
          <internalNodes>
            0 -1 202 1.0640894994139671e-02</internalNodes>
          <leafValues>
            -2.0830518007278442e-01 5.1069176197052002e-01</leafValues></_></weakClassifiers></_>
    <!-- stage 9 -->
    <_>
      <maxWeakCount>15</maxWeakCount>
      <stageThreshold>-1.3846528530120850e+00</stageThreshold>
      <weakClassifiers>
        <_>
          <internalNodes>
            0 -1 46 -9.1877937316894531e-02</internalNodes>
          <leafValues>
            5.3512990474700928e-01 -3.3967247605323792e-01</leafValues></_>
        <_>
          <internalNodes>
            0 -1 27 -4.7786880168132484e-04</internalNodes>
          <leafValues>
            3.1413692235946655e-01 -4.3888464570045471e-01</leafValues></_>
        <_>
          <internalNodes>
            0 -1 34 -1.2153379619121552e-02</internalNodes>
          <leafValues>
            2.7341914176940918e-01 -3.6239677667617798e-01</leafValues></_>
        <_>
          <internalNodes>
            0 -1 111 -5.7750486303120852e-04</internalNodes>
          <leafValues>
            -6.2091708183288574e-01 1.5733171999454498e-01</leafValues></_>
        <_>
          <internalNodes>
            0 -1 199 -7.0218433393165469e-05</internalNodes>
          <leafValues>
            1.9504646956920624e-01 -4.8677635192871094e-01</leafValues></_>
        <_>
          <internalNodes>
            0 -1 217 -1.6382854431867599e-02</internalNodes>
          <leafValues>
            6.3094621896743774e-01 -1.6207689046859741e-01</leafValues></_>
        <_>
          <internalNodes>
            0 -1 101 -5.8212026953697205e-02</internalNodes>
          <leafValues>
            3.2303348183631897e-01 -3.7435477972030640e-01</leafValues></_>
        <_>
          <internalNodes>
            0 -1 163 8.6472783004865050e-04</internalNodes>
          <leafValues>
            -3.9605686068534851e-01 2.5831860303878784e-01</leafValues></_>
        <_>
          <internalNodes>
            0 -1 150 8.2534918328747153e-04</internalNodes>
          <leafValues>
            1.5737055242061615e-01 -6.4842540025711060e-01</leafValues></_>
        <_>
          <internalNodes>
            0 -1 13 -1.1178474873304367e-02</internalNodes>
          <leafValues>
            -6.6365581750869751e-01 1.1625988036394119e-01</leafValues></_>
        <_>
          <internalNodes>
            0 -1 63 2.3736067116260529e-02</internalNodes>
          <leafValues>
            -1.6771620512008667e-01 6.7824912071228027e-01</leafValues></_>
        <_>
          <internalNodes>
            0 -1 67 -1.2581980787217617e-02</internalNodes>
          <leafValues>
            4.7114822268486023e-01 -1.9784662127494812e-01</leafValues></_>
        <_>
          <internalNodes>
            0 -1 97 1.3925961684435606e-03</internalNodes>
          <leafValues>
            1.2495023012161255e-01 -7.4352008104324341e-01</leafValues></_>
        <_>
          <internalNodes>
            0 -1 79 -1.1002436280250549e-02</internalNodes>
          <leafValues>
            4.0268129110336304e-01 -2.2890317440032959e-01</leafValues></_>
        <_>
          <internalNodes>
            0 -1 168 -1.3463936746120453e-02</internalNodes>
          <leafValues>
            5.7830357551574707e-01 -1.5184190869331360e-01</leafValues></_></weakClassifiers></_>
    <!-- stage 10 -->
    <_>
      <maxWeakCount>18</maxWeakCount>
      <stageThreshold>-1.4980857372283936e+00</stageThreshold>
      <weakClassifiers>
        <_>
          <internalNodes>
            0 -1 190 -7.3217630386352539e-02</internalNodes>
          <leafValues>
            4.5788156986236572e-01 -3.6699366569519043e-01</leafValues></_>
        <_>
          <internalNodes>
            0 -1 99 4.3587358959484845e-05</internalNodes>
          <leafValues>
            -4.7473543882369995e-01 2.4448803067207336e-01</leafValues></_>
        <_>
          <internalNodes>
            0 -1 7 -1.2139732018113136e-02</internalNodes>
          <leafValues>
            4.7730869054794312e-01 -2.0986789464950562e-01</leafValues></_>
        <_>
          <internalNodes>
            0 -1 124 -1.9212958868592978e-03</internalNodes>
          <leafValues>
            -5.6184893846511841e-01 1.8676024675369263e-01</leafValues></_>
        <_>
          <internalNodes>
            0 -1 215 1.9406769424676895e-02</internalNodes>
          <leafValues>
            -1.3353700935840607e-01 6.6315340995788574e-01</leafValues></_>
        <_>
          <internalNodes>
            0 -1 107 -1.1355027556419373e-02</internalNodes>
          <leafValues>
            4.6365538239479065e-01 -1.8771241605281830e-01</leafValues></_>
        <_>
          <internalNodes>
            0 -1 129 -1.0690652998164296e-03</internalNodes>
          <leafValues>
            4.1587290167808533e-01 -2.2082310914993286e-01</leafValues></_>
        <_>
          <internalNodes>
            0 -1 55 -1.8818352371454239e-02</internalNodes>
          <leafValues>
            4.9604326486587524e-01 -1.7964957654476166e-01</leafValues></_>
        <_>
          <internalNodes>
            0 -1 9 4.1167149320244789e-03</internalNodes>
          <leafValues>
            2.2194081544876099e-01 -5.6674790382385254e-01</leafValues></_>
        <_>
          <internalNodes>
            0 -1 158 7.7954441308975220e-02</internalNodes>
          <leafValues>
            6.0947593301534653e-02 -7.3368680477142334e-01</leafValues></_>
        <_>
          <internalNodes>
            0 -1 165 1.0191950714215636e-03</internalNodes>
          <leafValues>
            1.2063730508089066e-01 -5.8384031057357788e-01</leafValues></_>
        <_>
          <internalNodes>
            0 -1 36 -1.5031086280941963e-02</internalNodes>
          <leafValues>
            -6.7919611930847168e-01 1.4243380725383759e-01</leafValues></_>
        <_>
          <internalNodes>
            0 -1 108 -1.7242396250367165e-02</internalNodes>
          <leafValues>
            3.3877393603324890e-01 -2.6438891887664795e-01</leafValues></_>
        <_>
          <internalNodes>
            0 -1 173 -4.0757311508059502e-03</internalNodes>
          <leafValues>
            -5.6428819894790649e-01 1.5075097978115082e-01</leafValues></_>
        <_>
          <internalNodes>
            0 -1 131 -1.4151829294860363e-02</internalNodes>
          <leafValues>
            5.4064118862152100e-01 -1.5787017345428467e-01</leafValues></_>
        <_>
          <internalNodes>
            0 -1 132 7.1931851562112570e-04</internalNodes>
          <leafValues>
            1.4258570969104767e-01 -5.7691413164138794e-01</leafValues></_>
        <_>
          <internalNodes>
            0 -1 210 -4.1573131456971169e-03</internalNodes>
          <leafValues>
            3.8858100771903992e-01 -2.3149907588958740e-01</leafValues></_>
        <_>
          <internalNodes>
            0 -1 41 1.6367573291063309e-02</internalNodes>
          <leafValues>
            -1.4514623582363129e-01 6.5184849500656128e-01</leafValues></_></weakClassifiers></_>
    <!-- stage 11 -->
    <_>
      <maxWeakCount>19</maxWeakCount>
      <stageThreshold>-1.3282253742218018e+00</stageThreshold>
      <weakClassifiers>
        <_>
          <internalNodes>
            0 -1 21 6.2276786193251610e-03</internalNodes>
          <leafValues>
            -3.4343156218528748e-01 4.8051947355270386e-01</leafValues></_>
        <_>
          <internalNodes>
            0 -1 18 -2.2871471010148525e-03</internalNodes>
          <leafValues>
            3.2045614719390869e-01 -3.6277347803115845e-01</leafValues></_>
        <_>
          <internalNodes>
            0 -1 121 5.3879208862781525e-03</internalNodes>
          <leafValues>
            -6.1861759424209595e-01 1.3922479748725891e-01</leafValues></_>
        <_>
          <internalNodes>
            0 -1 115 1.0812005493789911e-03</internalNodes>
          <leafValues>
            -3.5357549786567688e-01 2.5202506780624390e-01</leafValues></_>
        <_>
          <internalNodes>
            0 -1 206 -2.3897169157862663e-03</internalNodes>
          <leafValues>
            -6.1918163299560547e-01 1.4553424715995789e-01</leafValues></_>
        <_>
          <internalNodes>
            0 -1 70 4.1323518380522728e-03</internalNodes>
          <leafValues>
            3.1749510765075684e-01 -2.9378053545951843e-01</leafValues></_>
        <_>
          <internalNodes>
            0 -1 134 9.4684371724724770e-03</internalNodes>
          <leafValues>
            -2.6506325602531433e-01 3.5382178425788879e-01</leafValues></_>
        <_>
          <internalNodes>
            0 -1 22 -2.0789418369531631e-02</internalNodes>
          <leafValues>
            3.8641163706779480e-01 -2.1061836183071136e-01</leafValues></_>
        <_>
          <internalNodes>
            0 -1 149 -6.0276500880718231e-03</internalNodes>
          <leafValues>
            2.8807482123374939e-01 -4.0646335482597351e-01</leafValues></_>
        <_>
          <internalNodes>
            0 -1 48 -5.7083675637841225e-03</internalNodes>
          <leafValues>
            -7.4295949935913086e-01 1.6034348309040070e-01</leafValues></_>
        <_>
          <internalNodes>
            0 -1 17 2.0963517017662525e-03</internalNodes>
          <leafValues>
            -3.3786132931709290e-01 2.6778265833854675e-01</leafValues></_>
        <_>
          <internalNodes>
            0 -1 52 -5.5288767907768488e-04</internalNodes>
          <leafValues>
            -5.4141485691070557e-01 1.4486956596374512e-01</leafValues></_>
        <_>
          <internalNodes>
            0 -1 145 -4.0258970111608505e-03</internalNodes>
          <leafValues>
            1.5835109353065491e-01 -5.0116771459579468e-01</leafValues></_>
        <_>
          <internalNodes>
            0 -1 33 -7.5893606990575790e-03</internalNodes>
          <leafValues>
            -6.8408918380737305e-01 7.7577650547027588e-02</leafValues></_>
        <_>
          <internalNodes>
            0 -1 120 -2.2652100597042590e-05</internalNodes>
          <leafValues>
            2.1596047282218933e-01 -3.4172421693801880e-01</leafValues></_>
        <_>
          <internalNodes>
            0 -1 157 5.2139498293399811e-03</internalNodes>
          <leafValues>
            -2.9627183079719543e-01 2.8366687893867493e-01</leafValues></_>
        <_>
          <internalNodes>
            0 -1 186 -7.5680658221244812e-02</internalNodes>
          <leafValues>
            5.8819776773452759e-01 -1.7154344916343689e-01</leafValues></_>
        <_>
          <internalNodes>
            0 -1 104 -2.2143837995827198e-03</internalNodes>
          <leafValues>
            -6.5703731775283813e-01 1.7962856590747833e-01</leafValues></_>
        <_>
          <internalNodes>
            0 -1 87 -1.0549509897828102e-02</internalNodes>
          <leafValues>
            -7.0065486431121826e-01 7.8211106359958649e-02</leafValues></_></weakClassifiers></_>
    <!-- stage 12 -->
    <_>
      <maxWeakCount>20</maxWeakCount>
      <stageThreshold>-1.3071858882904053e+00</stageThreshold>
      <weakClassifiers>
        <_>
          <internalNodes>
            0 -1 164 -9.4472765922546387e-03</internalNodes>
          <leafValues>
            3.2363861799240112e-01 -4.6352583169937134e-01</leafValues></_>
        <_>
          <internalNodes>
            0 -1 47 -1.8046408891677856e-02</internalNodes>
          <leafValues>
            4.9386933445930481e-01 -2.1999220550060272e-01</leafValues></_>
        <_>
          <internalNodes>
            0 -1 198 9.2484138440340757e-04</internalNodes>
          <leafValues>
            1.5209794044494629e-01 -6.2263971567153931e-01</leafValues></_>
        <_>
          <internalNodes>
            0 -1 54 3.5640701651573181e-02</internalNodes>
          <leafValues>
            -1.6978599131107330e-01 5.1483094692230225e-01</leafValues></_>
        <_>
          <internalNodes>
            0 -1 45 9.2321168631315231e-03</internalNodes>
          <leafValues>
            -2.3438832163810730e-01 4.4746673107147217e-01</leafValues></_>
        <_>
          <internalNodes>
            0 -1 110 -1.3741074129939079e-02</internalNodes>
          <leafValues>
            3.4633836150169373e-01 -2.6287561655044556e-01</leafValues></_>
        <_>
          <internalNodes>
            0 -1 215 -1.3905528932809830e-02</internalNodes>
          <leafValues>
            4.8325872421264648e-01 -1.5101067721843719e-01</leafValues></_>
        <_>
          <internalNodes>
            0 -1 61 -1.1981638381257653e-03</internalNodes>
          <leafValues>
            -4.7294363379478455e-01 1.7432996630668640e-01</leafValues></_>
        <_>
          <internalNodes>
            0 -1 122 -3.6418796516954899e-03</internalNodes>
          <leafValues>
            1.1789056658744812e-01 -6.3342642784118652e-01</leafValues></_>
        <_>
          <internalNodes>
            0 -1 28 1.4645289629697800e-03</internalNodes>
          <leafValues>
            -3.5587745904922485e-01 2.1815858781337738e-01</leafValues></_>
        <_>
          <internalNodes>
            0 -1 95 3.5927200224250555e-04</internalNodes>
          <leafValues>
            1.2677219510078430e-01 -6.0517913103103638e-01</leafValues></_>
        <_>
          <internalNodes>
            0 -1 216 1.2227594852447510e-02</internalNodes>
          <leafValues>
            -1.7617189884185791e-01 4.6095797419548035e-01</leafValues></_>
        <_>
          <internalNodes>
            0 -1 119 -1.8666949123144150e-02</internalNodes>
          <leafValues>
            -6.5352118015289307e-01 1.1565901339054108e-01</leafValues></_>
        <_>
          <internalNodes>
            0 -1 5 -3.4563664346933365e-02</internalNodes>
          <leafValues>
            3.4259051084518433e-01 -2.1670052409172058e-01</leafValues></_>
        <_>
          <internalNodes>
            0 -1 14 6.1864396557211876e-03</internalNodes>
          <leafValues>
            -1.4995539188385010e-01 5.2094388008117676e-01</leafValues></_>
        <_>
          <internalNodes>
            0 -1 166 1.2289506848901510e-03</internalNodes>
          <leafValues>
            1.3821688294410706e-01 -6.7090106010437012e-01</leafValues></_>
        <_>
          <internalNodes>
            0 -1 188 8.7616266682744026e-04</internalNodes>
          <leafValues>
            1.4029236137866974e-01 -4.4971063733100891e-01</leafValues></_>
        <_>
          <internalNodes>
            0 -1 203 -4.0883696638047695e-03</internalNodes>
          <leafValues>
            -5.9064918756484985e-01 1.0252635180950165e-01</leafValues></_>
        <_>
          <internalNodes>
            0 -1 204 3.4713670611381531e-03</internalNodes>
          <leafValues>
            1.0514752566814423e-01 -5.6951236724853516e-01</leafValues></_>
        <_>
          <internalNodes>
            0 -1 2 5.2009712904691696e-02</internalNodes>
          <leafValues>
            -1.3362719118595123e-01 6.0278952121734619e-01</leafValues></_></weakClassifiers></_>
    <!-- stage 13 -->
    <_>
      <maxWeakCount>20</maxWeakCount>
      <stageThreshold>-1.3689647912979126e+00</stageThreshold>
      <weakClassifiers>
        <_>
          <internalNodes>
            0 -1 106 -3.2798643223941326e-03</internalNodes>
          <leafValues>
            3.3657056093215942e-01 -4.9941611289978027e-01</leafValues></_>
        <_>
          <internalNodes>
            0 -1 83 -2.3611752316355705e-02</internalNodes>
          <leafValues>
            4.3444439768791199e-01 -2.5455719232559204e-01</leafValues></_>
        <_>
          <internalNodes>
            0 -1 91 -2.0903125405311584e-03</internalNodes>
          <leafValues>
            3.0048176646232605e-01 -2.9897472262382507e-01</leafValues></_>
        <_>
          <internalNodes>
            0 -1 24 -1.2934993952512741e-02</internalNodes>
          <leafValues>
            4.8291155695915222e-01 -2.0135864615440369e-01</leafValues></_>
        <_>
          <internalNodes>
            0 -1 144 1.5782326459884644e-02</internalNodes>
          <leafValues>
            -1.9690284132957458e-01 4.4107002019882202e-01</leafValues></_>
        <_>
          <internalNodes>
            0 -1 211 6.7677381448447704e-03</internalNodes>
          <leafValues>
            1.5127785503864288e-01 -6.6990774869918823e-01</leafValues></_>
        <_>
          <internalNodes>
            0 -1 213 -2.4924869649112225e-03</internalNodes>
          <leafValues>
            -6.4314770698547363e-01 9.2032976448535919e-02</leafValues></_>
        <_>
          <internalNodes>
            0 -1 66 -8.4576696157455444e-02</internalNodes>
          <leafValues>
            4.5814380049705505e-01 -1.9174830615520477e-01</leafValues></_>
        <_>
          <internalNodes>
            0 -1 35 5.1106333732604980e-02</internalNodes>
          <leafValues>
            -7.2469872236251831e-01 1.7990969121456146e-01</leafValues></_>
        <_>
          <internalNodes>
            0 -1 136 1.4675375819206238e-01</internalNodes>
          <leafValues>
            3.9548169821500778e-02 -7.9066753387451172e-01</leafValues></_>
        <_>
          <internalNodes>
            0 -1 148 1.2245874386280775e-03</internalNodes>
          <leafValues>
            8.2956485450267792e-02 -7.4418556690216064e-01</leafValues></_>
        <_>
          <internalNodes>
            0 -1 159 5.0264912715647370e-05</internalNodes>
          <leafValues>
            -3.1974107027053833e-01 2.0788103342056274e-01</leafValues></_>
        <_>
          <internalNodes>
            0 -1 39 1.9395386334508657e-04</internalNodes>
          <leafValues>
            -4.5421504974365234e-01 1.6216967999935150e-01</leafValues></_>
        <_>
          <internalNodes>
            0 -1 141 -9.4101100694388151e-04</internalNodes>
          <leafValues>
            -5.7823401689529419e-01 1.2548573315143585e-01</leafValues></_>
        <_>
          <internalNodes>
            0 -1 26 -4.8711062408983707e-03</internalNodes>
          <leafValues>
            2.9958680272102356e-01 -2.4264656007289886e-01</leafValues></_>
        <_>
          <internalNodes>
            0 -1 58 2.2695140913128853e-02</internalNodes>
          <leafValues>
            -1.3726109266281128e-01 6.9141191244125366e-01</leafValues></_>
        <_>
          <internalNodes>
            0 -1 155 1.1002798564732075e-02</internalNodes>
          <leafValues>
            -1.6097547113895416e-01 3.8627681136131287e-01</leafValues></_>
        <_>
          <internalNodes>
            0 -1 69 8.8217481970787048e-03</internalNodes>
          <leafValues>
            2.4722628295421600e-01 -3.1835937500000000e-01</leafValues></_>
        <_>
          <internalNodes>
            0 -1 139 -9.1894716024398804e-04</internalNodes>
          <leafValues>
            3.2568848133087158e-01 -2.6269185543060303e-01</leafValues></_>
        <_>
          <internalNodes>
            0 -1 31 -5.9932321310043335e-03</internalNodes>
          <leafValues>
            2.7974349260330200e-01 -2.4626442790031433e-01</leafValues></_></weakClassifiers></_>
    <!-- stage 14 -->
    <_>
      <maxWeakCount>22</maxWeakCount>
      <stageThreshold>-1.3277603387832642e+00</stageThreshold>
      <weakClassifiers>
        <_>
          <internalNodes>
            0 -1 180 2.5702035054564476e-04</internalNodes>
          <leafValues>
            -5.0090742111206055e-01 2.5409835577011108e-01</leafValues></_>
        <_>
          <internalNodes>
            0 -1 194 -2.0261906087398529e-02</internalNodes>
          <leafValues>
            5.1732444763183594e-01 -2.2810654342174530e-01</leafValues></_>
        <_>
          <internalNodes>
            0 -1 200 5.8565282961353660e-04</internalNodes>
          <leafValues>
            1.3828189671039581e-01 -5.8703953027725220e-01</leafValues></_>
        <_>
          <internalNodes>
            0 -1 75 -4.7548837028443813e-03</internalNodes>
          <leafValues>
            3.7346735596656799e-01 -1.9151979684829712e-01</leafValues></_>
        <_>
          <internalNodes>
            0 -1 73 -1.4614805113524199e-03</internalNodes>
          <leafValues>
            2.6362338662147522e-01 -3.1861561536788940e-01</leafValues></_>
        <_>
          <internalNodes>
            0 -1 25 -7.5504963751882315e-04</internalNodes>
          <leafValues>
            2.3454518616199493e-01 -3.2769683003425598e-01</leafValues></_>
        <_>
          <internalNodes>
            0 -1 51 2.8555538505315781e-02</internalNodes>
          <leafValues>
            1.1333221942186356e-01 -6.8603092432022095e-01</leafValues></_>
        <_>
          <internalNodes>
            0 -1 205 1.8094072584062815e-03</internalNodes>
          <leafValues>
            -1.8991306424140930e-01 4.3402600288391113e-01</leafValues></_>
        <_>
          <internalNodes>
            0 -1 103 7.5855897739529610e-04</internalNodes>
          <leafValues>
            1.3751605153083801e-01 -5.5644083023071289e-01</leafValues></_>
        <_>
          <internalNodes>
            0 -1 8 4.1567338630557060e-03</internalNodes>
          <leafValues>
            1.1286217719316483e-01 -5.8730328083038330e-01</leafValues></_>
        <_>
          <internalNodes>
            0 -1 160 9.1989425709471107e-04</internalNodes>
          <leafValues>
            -3.8195660710334778e-01 2.1861651539802551e-01</leafValues></_>
        <_>
          <internalNodes>
            0 -1 95 -4.4047302799299359e-04</internalNodes>
          <leafValues>
            -4.9513721466064453e-01 1.4678472280502319e-01</leafValues></_>
        <_>
          <internalNodes>
            0 -1 96 6.7384302383288741e-04</internalNodes>
          <leafValues>
            7.4899524450302124e-02 -7.7075946331024170e-01</leafValues></_>
        <_>
          <internalNodes>
            0 -1 32 8.8819290976971388e-04</internalNodes>
          <leafValues>
            -2.7285224199295044e-01 2.8028988838195801e-01</leafValues></_>
        <_>
          <internalNodes>
            0 -1 194 1.2447286397218704e-02</internalNodes>
          <leafValues>
            -1.4221636950969696e-01 4.9722579121589661e-01</leafValues></_>
        <_>
          <internalNodes>
            0 -1 86 -1.7220970243215561e-02</internalNodes>
          <leafValues>
            -5.6233340501785278e-01 1.3020616769790649e-01</leafValues></_>
        <_>
          <internalNodes>
            0 -1 208 -5.9981280937790871e-03</internalNodes>
          <leafValues>
            -6.6795444488525391e-01 8.8235199451446533e-02</leafValues></_>
        <_>
          <internalNodes>
            0 -1 192 -1.8612533807754517e-02</internalNodes>
          <leafValues>
            4.3283098936080933e-01 -1.6341216862201691e-01</leafValues></_>
        <_>
          <internalNodes>
            0 -1 189 2.4628574028611183e-03</internalNodes>
          <leafValues>
            -2.3291113972663879e-01 3.3354794979095459e-01</leafValues></_>
        <_>
          <internalNodes>
            0 -1 68 7.5269921217113733e-04</internalNodes>
          <leafValues>
            1.4843565225601196e-01 -4.5251029729843140e-01</leafValues></_>
        <_>
          <internalNodes>
            0 -1 90 -1.1899888515472412e-02</internalNodes>
          <leafValues>
            1.2024299800395966e-01 -5.0315809249877930e-01</leafValues></_>
        <_>
          <internalNodes>
            0 -1 103 -3.0179347377270460e-03</internalNodes>
          <leafValues>
            -6.0514456033706665e-01 8.6015477776527405e-02</leafValues></_></weakClassifiers></_>
    <!-- stage 15 -->
    <_>
      <maxWeakCount>24</maxWeakCount>
      <stageThreshold>-1.3190821409225464e+00</stageThreshold>
      <weakClassifiers>
        <_>
          <internalNodes>
            0 -1 6 -3.7775253877043724e-03</internalNodes>
          <leafValues>
            2.7370813488960266e-01 -4.8590949177742004e-01</leafValues></_>
        <_>
          <internalNodes>
            0 -1 170 1.9596938509494066e-03</internalNodes>
          <leafValues>
            -2.1693147718906403e-01 4.1537690162658691e-01</leafValues></_>
        <_>
          <internalNodes>
            0 -1 214 -1.4560191892087460e-02</internalNodes>
          <leafValues>
            2.9502329230308533e-01 -2.5320348143577576e-01</leafValues></_>
        <_>
          <internalNodes>
            0 -1 76 1.6395028214901686e-03</internalNodes>
          <leafValues>
            -5.0121253728866577e-01 1.3408720493316650e-01</leafValues></_>
        <_>
          <internalNodes>
            0 -1 40 7.8332104021683335e-04</internalNodes>
          <leafValues>
            1.2062980234622955e-01 -5.9395736455917358e-01</leafValues></_>
        <_>
          <internalNodes>
            0 -1 118 -1.1914372444152832e-02</internalNodes>
          <leafValues>
            3.9227449893951416e-01 -1.7508314549922943e-01</leafValues></_>
        <_>
          <internalNodes>
            0 -1 209 -4.7226189635694027e-03</internalNodes>
          <leafValues>
            4.0404975414276123e-01 -1.9923669099807739e-01</leafValues></_>
        <_>
          <internalNodes>
            0 -1 152 -1.2463005259633064e-03</internalNodes>
          <leafValues>
            -6.3798886537551880e-01 1.0344118624925613e-01</leafValues></_>
        <_>
          <internalNodes>
            0 -1 65 -3.5565927624702454e-02</internalNodes>
          <leafValues>
            -6.8030035495758057e-01 9.2328846454620361e-02</leafValues></_>
        <_>
          <internalNodes>
            0 -1 175 -5.1393341273069382e-03</internalNodes>
          <leafValues>
            -6.9907391071319580e-01 8.7777145206928253e-02</leafValues></_>
        <_>
          <internalNodes>
            0 -1 125 5.1574679091572762e-03</internalNodes>
          <leafValues>
            -2.4774269759654999e-01 2.8578457236289978e-01</leafValues></_>
        <_>
          <internalNodes>
            0 -1 77 6.7661108914762735e-04</internalNodes>
          <leafValues>
            -2.4685718119144440e-01 2.5840383768081665e-01</leafValues></_>
        <_>
          <internalNodes>
            0 -1 140 -2.3810705170035362e-03</internalNodes>
          <leafValues>
            -3.2569998502731323e-01 2.3358540236949921e-01</leafValues></_>
        <_>
          <internalNodes>
            0 -1 117 -3.0237212777137756e-02</internalNodes>
          <leafValues>
            4.3323782086372375e-01 -1.3891884684562683e-01</leafValues></_>
        <_>
          <internalNodes>
            0 -1 81 -1.4403261244297028e-02</internalNodes>
          <leafValues>
            5.0255703926086426e-01 -1.2875543534755707e-01</leafValues></_>
        <_>
          <internalNodes>
            0 -1 80 -3.8222995499381796e-05</internalNodes>
          <leafValues>
            2.0882047712802887e-01 -3.7489488720893860e-01</leafValues></_>
        <_>
          <internalNodes>
            0 -1 53 -2.1586241200566292e-04</internalNodes>
          <leafValues>
            -3.4785068035125732e-01 2.0864677429199219e-01</leafValues></_>
        <_>
          <internalNodes>
            0 -1 123 -1.9665621221065521e-03</internalNodes>
          <leafValues>
            3.1546533107757568e-01 -2.5552323460578918e-01</leafValues></_>
        <_>
          <internalNodes>
            0 -1 29 -1.1456707492470741e-02</internalNodes>
          <leafValues>
            5.7189428806304932e-01 -1.3337619602680206e-01</leafValues></_>
        <_>
          <internalNodes>
            0 -1 172 6.4692774321883917e-04</internalNodes>
          <leafValues>
            -3.3188456296920776e-01 2.5488027930259705e-01</leafValues></_>
        <_>
          <internalNodes>
            0 -1 159 -1.9827589858323336e-03</internalNodes>
          <leafValues>
            -4.2252153158187866e-01 1.3101352751255035e-01</leafValues></_>
        <_>
          <internalNodes>
            0 -1 135 -7.3815591167658567e-04</internalNodes>
          <leafValues>
            1.8187463283538818e-01 -3.2317975163459778e-01</leafValues></_>
        <_>
          <internalNodes>
            0 -1 43 -2.9660584405064583e-03</internalNodes>
          <leafValues>
            2.6701375842094421e-01 -2.3549126088619232e-01</leafValues></_>
        <_>
          <internalNodes>
            0 -1 4 3.4865191578865051e-01</internalNodes>
          <leafValues>
            -8.9419268071651459e-02 7.4423956871032715e-01</leafValues></_></weakClassifiers></_></stages>
  <features>
    <_>
      <rects>
        <_>
          0 0 20 19 -1.</_>
        <_>
          5 0 10 19 2.</_></rects>
      <tilted>0</tilted></_>
    <_>
      <rects>
        <_>
          0 0 20 20 -1.</_>
        <_>
          5 0 10 20 2.</_></rects>
      <tilted>0</tilted></_>
    <_>
      <rects>
        <_>
          0 1 20 4 -1.</_>
        <_>
          5 1 10 4 2.</_></rects>
      <tilted>0</tilted></_>
    <_>
      <rects>
        <_>
          0 3 6 13 -1.</_>
        <_>
          3 3 3 13 2.</_></rects>
      <tilted>0</tilted></_>
    <_>
      <rects>
        <_>
          0 4 20 16 -1.</_>
        <_>
          5 4 10 16 2.</_></rects>
      <tilted>0</tilted></_>
    <_>
      <rects>
        <_>
          0 5 6 10 -1.</_>
        <_>
          2 5 2 10 3.</_></rects>
      <tilted>0</tilted></_>
    <_>
      <rects>
        <_>
          0 6 6 1 -1.</_>
        <_>
          3 6 3 1 2.</_></rects>
      <tilted>0</tilted></_>
    <_>
      <rects>
        <_>
          0 7 4 7 -1.</_>
        <_>
          1 7 2 7 2.</_></rects>
      <tilted>0</tilted></_>
    <_>
      <rects>
        <_>
          0 7 2 4 -1.</_>
        <_>
          0 9 2 2 2.</_></rects>
      <tilted>0</tilted></_>
    <_>
      <rects>
        <_>
          0 8 3 4 -1.</_>
        <_>
          0 10 3 2 2.</_></rects>
      <tilted>0</tilted></_>
    <_>
      <rects>
        <_>
          0 10 12 4 -1.</_>
        <_>
          0 10 6 2 2.</_>
        <_>
          6 12 6 2 2.</_></rects>
      <tilted>0</tilted></_>
    <_>
      <rects>
        <_>
          1 2 9 18 -1.</_>
        <_>
          4 8 3 6 9.</_></rects>
      <tilted>0</tilted></_>
    <_>
      <rects>
        <_>
          1 4 2 12 -1.</_>
        <_>
          2 4 1 12 2.</_></rects>
      <tilted>0</tilted></_>
    <_>
      <rects>
        <_>
          1 7 3 6 -1.</_>
        <_>
          1 10 3 3 2.</_></rects>
      <tilted>0</tilted></_>
    <_>
      <rects>
        <_>
          1 8 4 4 -1.</_>
        <_>
          2 8 2 4 2.</_></rects>
      <tilted>0</tilted></_>
    <_>
      <rects>
        <_>
          1 10 10 4 -1.</_>
        <_>
          1 10 5 2 2.</_>
        <_>
          6 12 5 2 2.</_></rects>
      <tilted>0</tilted></_>
    <_>
      <rects>
        <_>
          2 1 10 10 -1.</_>
        <_>
          2 1 5 5 2.</_>
        <_>
          7 6 5 5 2.</_></rects>
      <tilted>0</tilted></_>
    <_>
      <rects>
        <_>
          2 3 2 8 -1.</_>
        <_>
          2 3 1 4 2.</_>
        <_>
          3 7 1 4 2.</_></rects>
      <tilted>0</tilted></_>
    <_>
      <rects>
        <_>
          2 8 2 9 -1.</_>
        <_>
          3 8 1 9 2.</_></rects>
      <tilted>0</tilted></_>
    <_>
      <rects>
        <_>
          2 10 17 4 -1.</_>
        <_>
          2 11 17 2 2.</_></rects>
      <tilted>0</tilted></_>
    <_>
      <rects>
        <_>
          2 14 12 2 -1.</_>
        <_>
          2 14 6 1 2.</_>
        <_>
          8 15 6 1 2.</_></rects>
      <tilted>0</tilted></_>
    <_>
      <rects>
        <_>
          3 2 8 2 -1.</_>
        <_>
          3 2 4 1 2.</_>
        <_>
          7 3 4 1 2.</_></rects>
      <tilted>0</tilted></_>
    <_>
      <rects>
        <_>
          3 5 9 2 -1.</_>
        <_>
          6 8 3 2 3.</_></rects>
      <tilted>1</tilted></_>
    <_>
      <rects>
        <_>
          3 5 15 9 -1.</_>
        <_>
          8 8 5 3 9.</_></rects>
      <tilted>0</tilted></_>
    <_>
      <rects>
        <_>
          3 6 15 9 -1.</_>
        <_>
          3 9 15 3 3.</_></rects>
      <tilted>0</tilted></_>
    <_>
      <rects>
        <_>
          3 12 2 5 -1.</_>
        <_>
          4 12 1 5 2.</_></rects>
      <tilted>0</tilted></_>
    <_>
      <rects>
        <_>
          3 12 4 6 -1.</_>
        <_>
          3 12 2 3 2.</_>
        <_>
          5 15 2 3 2.</_></rects>
      <tilted>0</tilted></_>
    <_>
      <rects>
        <_>
          3 15 10 2 -1.</_>
        <_>
          3 15 5 1 2.</_>
        <_>
          8 16 5 1 2.</_></rects>
      <tilted>0</tilted></_>
    <_>
      <rects>
        <_>
          3 16 11 2 -1.</_>
        <_>
          3 17 11 1 2.</_></rects>
      <tilted>0</tilted></_>
    <_>
      <rects>
        <_>
          4 1 4 4 -1.</_>
        <_>
          4 1 2 4 2.</_></rects>
      <tilted>1</tilted></_>
    <_>
      <rects>
        <_>
          4 1 8 4 -1.</_>
        <_>
          6 3 4 4 2.</_></rects>
      <tilted>1</tilted></_>
    <_>
      <rects>
        <_>
          4 1 9 3 -1.</_>
        <_>
          4 2 9 1 3.</_></rects>
      <tilted>0</tilted></_>
    <_>
      <rects>
        <_>
          4 2 2 4 -1.</_>
        <_>
          4 2 1 2 2.</_>
        <_>
          5 4 1 2 2.</_></rects>
      <tilted>0</tilted></_>
    <_>
      <rects>
        <_>
          4 5 2 3 -1.</_>
        <_>
          3 6 2 1 3.</_></rects>
      <tilted>1</tilted></_>
    <_>
      <rects>
        <_>
          4 5 6 6 -1.</_>
        <_>
          6 7 2 2 9.</_></rects>
      <tilted>0</tilted></_>
    <_>
      <rects>
        <_>
          4 5 12 9 -1.</_>
        <_>
          8 8 4 3 9.</_></rects>
      <tilted>0</tilted></_>
    <_>
      <rects>
        <_>
          4 7 10 7 -1.</_>
        <_>
          9 7 5 7 2.</_></rects>
      <tilted>0</tilted></_>
    <_>
      <rects>
        <_>
          4 7 12 8 -1.</_>
        <_>
          10 7 6 8 2.</_></rects>
      <tilted>0</tilted></_>
    <_>
      <rects>
        <_>
          4 10 6 3 -1.</_>
        <_>
          3 11 6 1 3.</_></rects>
      <tilted>1</tilted></_>
    <_>
      <rects>
        <_>
          4 11 12 1 -1.</_>
        <_>
          7 11 6 1 2.</_></rects>
      <tilted>0</tilted></_>
    <_>
      <rects>
        <_>
          4 11 4 3 -1.</_>
        <_>
          4 12 4 1 3.</_></rects>
      <tilted>0</tilted></_>
    <_>
      <rects>
        <_>
          4 11 6 3 -1.</_>
        <_>
          3 12 6 1 3.</_></rects>
      <tilted>1</tilted></_>
    <_>
      <rects>
        <_>
          4 12 4 3 -1.</_>
        <_>
          3 13 4 1 3.</_></rects>
      <tilted>1</tilted></_>
    <_>
      <rects>
        <_>
          4 13 4 6 -1.</_>
        <_>
          4 13 2 3 2.</_>
        <_>
          6 16 2 3 2.</_></rects>
      <tilted>0</tilted></_>
    <_>
      <rects>
        <_>
          4 13 7 2 -1.</_>
        <_>
          4 14 7 1 2.</_></rects>
      <tilted>0</tilted></_>
    <_>
      <rects>
        <_>
          5 0 4 4 -1.</_>
        <_>
          6 1 2 4 2.</_></rects>
      <tilted>1</tilted></_>
    <_>
      <rects>
        <_>
          5 0 6 5 -1.</_>
        <_>
          7 2 2 5 3.</_></rects>
      <tilted>1</tilted></_>
    <_>
      <rects>
        <_>
          5 1 3 4 -1.</_>
        <_>
          6 2 1 4 3.</_></rects>
      <tilted>1</tilted></_>
    <_>
      <rects>
        <_>
          5 3 2 3 -1.</_>
        <_>
          4 4 2 1 3.</_></rects>
      <tilted>1</tilted></_>
    <_>
      <rects>
        <_>
          5 4 6 2 -1.</_>
        <_>
          7 6 2 2 3.</_></rects>
      <tilted>1</tilted></_>
    <_>
      <rects>
        <_>
          5 7 6 6 -1.</_>
        <_>
          7 9 2 2 9.</_></rects>
      <tilted>0</tilted></_>
    <_>
      <rects>
        <_>
          5 7 12 7 -1.</_>
        <_>
          11 7 6 7 2.</_></rects>
      <tilted>0</tilted></_>
    <_>
      <rects>
        <_>
          5 10 1 3 -1.</_>
        <_>
          5 11 1 1 3.</_></rects>
      <tilted>0</tilted></_>
    <_>
      <rects>
        <_>
          5 11 1 2 -1.</_>
        <_>
          5 12 1 1 2.</_></rects>
      <tilted>0</tilted></_>
    <_>
      <rects>
        <_>
          5 11 8 5 -1.</_>
        <_>
          7 11 4 5 2.</_></rects>
      <tilted>0</tilted></_>
    <_>
      <rects>
        <_>
          5 11 6 3 -1.</_>
        <_>
          4 12 6 1 3.</_></rects>
      <tilted>1</tilted></_>
    <_>
      <rects>
        <_>
          5 12 3 2 -1.</_>
        <_>
          5 13 3 1 2.</_></rects>
      <tilted>0</tilted></_>
    <_>
      <rects>
        <_>
          5 12 4 2 -1.</_>
        <_>
          5 13 4 1 2.</_></rects>
      <tilted>0</tilted></_>
    <_>
      <rects>
        <_>
          5 12 4 3 -1.</_>
        <_>
          4 13 4 1 3.</_></rects>
      <tilted>1</tilted></_>
    <_>
      <rects>
        <_>
          5 12 4 4 -1.</_>
        <_>
          4 13 4 2 2.</_></rects>
      <tilted>1</tilted></_>
    <_>
      <rects>
        <_>
          5 12 5 3 -1.</_>
        <_>
          4 13 5 1 3.</_></rects>
      <tilted>1</tilted></_>
    <_>
      <rects>
        <_>
          5 12 6 2 -1.</_>
        <_>
          5 13 6 1 2.</_></rects>
      <tilted>0</tilted></_>
    <_>
      <rects>
        <_>
          6 0 3 5 -1.</_>
        <_>
          7 1 1 5 3.</_></rects>
      <tilted>1</tilted></_>
    <_>
      <rects>
        <_>
          6 0 4 6 -1.</_>
        <_>
          7 1 2 6 2.</_></rects>
      <tilted>1</tilted></_>
    <_>
      <rects>
        <_>
          6 0 6 6 -1.</_>
        <_>
          8 2 2 6 3.</_></rects>
      <tilted>1</tilted></_>
    <_>
      <rects>
        <_>
          6 0 3 6 -1.</_>
        <_>
          4 2 3 2 3.</_></rects>
      <tilted>1</tilted></_>
    <_>
      <rects>
        <_>
          6 0 9 20 -1.</_>
        <_>
          9 0 3 20 3.</_></rects>
      <tilted>0</tilted></_>
    <_>
      <rects>
        <_>
          6 0 9 4 -1.</_>
        <_>
          6 1 9 2 2.</_></rects>
      <tilted>0</tilted></_>
    <_>
      <rects>
        <_>
          6 4 1 2 -1.</_>
        <_>
          6 4 1 1 2.</_></rects>
      <tilted>1</tilted></_>
    <_>
      <rects>
        <_>
          6 4 9 6 -1.</_>
        <_>
          9 4 3 6 3.</_></rects>
      <tilted>0</tilted></_>
    <_>
      <rects>
        <_>
          6 4 9 9 -1.</_>
        <_>
          9 4 3 9 3.</_></rects>
      <tilted>0</tilted></_>
    <_>
      <rects>
        <_>
          6 5 4 14 -1.</_>
        <_>
          8 5 2 14 2.</_></rects>
      <tilted>0</tilted></_>
    <_>
      <rects>
        <_>
          6 5 8 12 -1.</_>
        <_>
          6 11 8 6 2.</_></rects>
      <tilted>0</tilted></_>
    <_>
      <rects>
        <_>
          6 6 3 4 -1.</_>
        <_>
          6 7 3 2 2.</_></rects>
      <tilted>0</tilted></_>
    <_>
      <rects>
        <_>
          6 7 10 8 -1.</_>
        <_>
          11 7 5 8 2.</_></rects>
      <tilted>0</tilted></_>
    <_>
      <rects>
        <_>
          6 7 10 8 -1.</_>
        <_>
          6 9 10 4 2.</_></rects>
      <tilted>0</tilted></_>
    <_>
      <rects>
        <_>
          6 8 12 3 -1.</_>
        <_>
          10 8 4 3 3.</_></rects>
      <tilted>0</tilted></_>
    <_>
      <rects>
        <_>
          6 8 7 3 -1.</_>
        <_>
          5 9 7 1 3.</_></rects>
      <tilted>1</tilted></_>
    <_>
      <rects>
        <_>
          6 8 8 12 -1.</_>
        <_>
          6 11 8 6 2.</_></rects>
      <tilted>0</tilted></_>
    <_>
      <rects>
        <_>
          6 8 10 6 -1.</_>
        <_>
          6 10 10 2 3.</_></rects>
      <tilted>0</tilted></_>
    <_>
      <rects>
        <_>
          6 11 4 2 -1.</_>
        <_>
          7 12 2 2 2.</_></rects>
      <tilted>1</tilted></_>
    <_>
      <rects>
        <_>
          6 12 6 3 -1.</_>
        <_>
          8 12 2 3 3.</_></rects>
      <tilted>0</tilted></_>
    <_>
      <rects>
        <_>
          6 12 4 2 -1.</_>
        <_>
          6 13 4 1 2.</_></rects>
      <tilted>0</tilted></_>
    <_>
      <rects>
        <_>
          7 0 3 6 -1.</_>
        <_>
          8 1 1 6 3.</_></rects>
      <tilted>1</tilted></_>
    <_>
      <rects>
        <_>
          7 0 3 7 -1.</_>
        <_>
          8 1 1 7 3.</_></rects>
      <tilted>1</tilted></_>
    <_>
      <rects>
        <_>
          7 0 4 7 -1.</_>
        <_>
          8 1 2 7 2.</_></rects>
      <tilted>1</tilted></_>
    <_>
      <rects>
        <_>
          7 0 3 6 -1.</_>
        <_>
          7 0 3 3 2.</_></rects>
      <tilted>1</tilted></_>
    <_>
      <rects>
        <_>
          7 1 3 4 -1.</_>
        <_>
          6 2 3 2 2.</_></rects>
      <tilted>1</tilted></_>
    <_>
      <rects>
        <_>
          7 3 1 3 -1.</_>
        <_>
          6 4 1 1 3.</_></rects>
      <tilted>1</tilted></_>
    <_>
      <rects>
        <_>
          7 3 2 3 -1.</_>
        <_>
          6 4 2 1 3.</_></rects>
      <tilted>1</tilted></_>
    <_>
      <rects>
        <_>
          7 4 7 14 -1.</_>
        <_>
          7 11 7 7 2.</_></rects>
      <tilted>0</tilted></_>
    <_>
      <rects>
        <_>
          7 6 6 3 -1.</_>
        <_>
          7 7 6 1 3.</_></rects>
      <tilted>0</tilted></_>
    <_>
      <rects>
        <_>
          7 8 10 6 -1.</_>
        <_>
          12 8 5 6 2.</_></rects>
      <tilted>0</tilted></_>
    <_>
      <rects>
        <_>
          7 9 6 7 -1.</_>
        <_>
          9 9 2 7 3.</_></rects>
      <tilted>0</tilted></_>
    <_>
      <rects>
        <_>
          7 11 6 3 -1.</_>
        <_>
          9 12 2 1 9.</_></rects>
      <tilted>0</tilted></_>
    <_>
      <rects>
        <_>
          7 12 1 3 -1.</_>
        <_>
          7 13 1 1 3.</_></rects>
      <tilted>0</tilted></_>
    <_>
      <rects>
        <_>
          7 12 3 2 -1.</_>
        <_>
          7 13 3 1 2.</_></rects>
      <tilted>0</tilted></_>
    <_>
      <rects>
        <_>
          7 12 4 3 -1.</_>
        <_>
          7 13 4 1 3.</_></rects>
      <tilted>0</tilted></_>
    <_>
      <rects>
        <_>
          7 13 2 2 -1.</_>
        <_>
          7 14 2 1 2.</_></rects>
      <tilted>0</tilted></_>
    <_>
      <rects>
        <_>
          7 14 12 2 -1.</_>
        <_>
          7 14 6 1 2.</_>
        <_>
          13 15 6 1 2.</_></rects>
      <tilted>0</tilted></_>
    <_>
      <rects>
        <_>
          7 16 10 2 -1.</_>
        <_>
          7 17 10 1 2.</_></rects>
      <tilted>0</tilted></_>
    <_>
      <rects>
        <_>
          8 1 6 9 -1.</_>
        <_>
          10 4 2 3 9.</_></rects>
      <tilted>0</tilted></_>
    <_>
      <rects>
        <_>
          8 1 4 9 -1.</_>
        <_>
          8 4 4 3 3.</_></rects>
      <tilted>0</tilted></_>
    <_>
      <rects>
        <_>
          8 3 1 3 -1.</_>
        <_>
          7 4 1 1 3.</_></rects>
      <tilted>1</tilted></_>
    <_>
      <rects>
        <_>
          8 3 2 2 -1.</_>
        <_>
          8 3 2 1 2.</_></rects>
      <tilted>1</tilted></_>
    <_>
      <rects>
        <_>
          8 3 12 8 -1.</_>
        <_>
          8 3 6 4 2.</_>
        <_>
          14 7 6 4 2.</_></rects>
      <tilted>0</tilted></_>
    <_>
      <rects>
        <_>
          8 4 12 2 -1.</_>
        <_>
          8 4 6 1 2.</_>
        <_>
          14 5 6 1 2.</_></rects>
      <tilted>0</tilted></_>
    <_>
      <rects>
        <_>
          8 5 4 6 -1.</_>
        <_>
          8 7 4 2 3.</_></rects>
      <tilted>0</tilted></_>
    <_>
      <rects>
        <_>
          8 9 6 2 -1.</_>
        <_>
          10 11 2 2 3.</_></rects>
      <tilted>1</tilted></_>
    <_>
      <rects>
        <_>
          8 9 10 3 -1.</_>
        <_>
          13 9 5 3 2.</_></rects>
      <tilted>0</tilted></_>
    <_>
      <rects>
        <_>
          8 10 6 2 -1.</_>
        <_>
          10 12 2 2 3.</_></rects>
      <tilted>1</tilted></_>
    <_>
      <rects>
        <_>
          8 12 1 3 -1.</_>
        <_>
          8 13 1 1 3.</_></rects>
      <tilted>0</tilted></_>
    <_>
      <rects>
        <_>
          8 12 2 2 -1.</_>
        <_>
          8 13 2 1 2.</_></rects>
      <tilted>0</tilted></_>
    <_>
      <rects>
        <_>
          8 12 4 2 -1.</_>
        <_>
          8 12 2 1 2.</_>
        <_>
          10 13 2 1 2.</_></rects>
      <tilted>0</tilted></_>
    <_>
      <rects>
        <_>
          8 13 3 2 -1.</_>
        <_>
          8 14 3 1 2.</_></rects>
      <tilted>0</tilted></_>
    <_>
      <rects>
        <_>
          8 15 10 2 -1.</_>
        <_>
          8 15 5 1 2.</_>
        <_>
          13 16 5 1 2.</_></rects>
      <tilted>0</tilted></_>
    <_>
      <rects>
        <_>
          9 0 3 7 -1.</_>
        <_>
          10 1 1 7 3.</_></rects>
      <tilted>1</tilted></_>
    <_>
      <rects>
        <_>
          9 0 3 9 -1.</_>
        <_>
          10 1 1 9 3.</_></rects>
      <tilted>1</tilted></_>
    <_>
      <rects>
        <_>
          9 0 3 17 -1.</_>
        <_>
          10 0 1 17 3.</_></rects>
      <tilted>0</tilted></_>
    <_>
      <rects>
        <_>
          9 0 3 14 -1.</_>
        <_>
          9 7 3 7 2.</_></rects>
      <tilted>0</tilted></_>
    <_>
      <rects>
        <_>
          9 1 3 11 -1.</_>
        <_>
          10 1 1 11 3.</_></rects>
      <tilted>0</tilted></_>
    <_>
      <rects>
        <_>
          9 3 3 12 -1.</_>
        <_>
          10 7 1 4 9.</_></rects>
      <tilted>0</tilted></_>
    <_>
      <rects>
        <_>
          9 5 4 14 -1.</_>
        <_>
          9 12 4 7 2.</_></rects>
      <tilted>0</tilted></_>
    <_>
      <rects>
        <_>
          9 6 3 4 -1.</_>
        <_>
          9 7 3 2 2.</_></rects>
      <tilted>0</tilted></_>
    <_>
      <rects>
        <_>
          9 6 9 2 -1.</_>
        <_>
          9 6 9 1 2.</_></rects>
      <tilted>1</tilted></_>
    <_>
      <rects>
        <_>
          9 7 3 3 -1.</_>
        <_>
          10 8 1 1 9.</_></rects>
      <tilted>0</tilted></_>
    <_>
      <rects>
        <_>
          9 7 10 10 -1.</_>
        <_>
          9 7 5 5 2.</_>
        <_>
          14 12 5 5 2.</_></rects>
      <tilted>0</tilted></_>
    <_>
      <rects>
        <_>
          9 8 3 6 -1.</_>
        <_>
          10 8 1 6 3.</_></rects>
      <tilted>0</tilted></_>
    <_>
      <rects>
        <_>
          9 8 4 2 -1.</_>
        <_>
          9 8 2 2 2.</_></rects>
      <tilted>1</tilted></_>
    <_>
      <rects>
        <_>
          9 8 3 4 -1.</_>
        <_>
          9 9 3 2 2.</_></rects>
      <tilted>0</tilted></_>
    <_>
      <rects>
        <_>
          9 9 3 5 -1.</_>
        <_>
          10 9 1 5 3.</_></rects>
      <tilted>0</tilted></_>
    <_>
      <rects>
        <_>
          9 9 4 6 -1.</_>
        <_>
          10 9 2 6 2.</_></rects>
      <tilted>0</tilted></_>
    <_>
      <rects>
        <_>
          9 13 3 2 -1.</_>
        <_>
          9 14 3 1 2.</_></rects>
      <tilted>0</tilted></_>
    <_>
      <rects>
        <_>
          10 2 1 10 -1.</_>
        <_>
          10 7 1 5 2.</_></rects>
      <tilted>0</tilted></_>
    <_>
      <rects>
        <_>
          10 2 4 8 -1.</_>
        <_>
          11 3 2 8 2.</_></rects>
      <tilted>1</tilted></_>
    <_>
      <rects>
        <_>
          10 2 6 1 -1.</_>
        <_>
          12 4 2 1 3.</_></rects>
      <tilted>1</tilted></_>
    <_>
      <rects>
        <_>
          10 2 10 8 -1.</_>
        <_>
          10 2 5 8 2.</_></rects>
      <tilted>1</tilted></_>
    <_>
      <rects>
        <_>
          10 3 6 9 -1.</_>
        <_>
          12 6 2 3 9.</_></rects>
      <tilted>0</tilted></_>
    <_>
      <rects>
        <_>
          10 3 4 13 -1.</_>
        <_>
          12 3 2 13 2.</_></rects>
      <tilted>0</tilted></_>
    <_>
      <rects>
        <_>
          10 3 9 1 -1.</_>
        <_>
          13 6 3 1 3.</_></rects>
      <tilted>1</tilted></_>
    <_>
      <rects>
        <_>
          10 4 4 14 -1.</_>
        <_>
          12 4 2 14 2.</_></rects>
      <tilted>0</tilted></_>
    <_>
      <rects>
        <_>
          10 4 7 3 -1.</_>
        <_>
          9 5 7 1 3.</_></rects>
      <tilted>1</tilted></_>
    <_>
      <rects>
        <_>
          10 8 1 2 -1.</_>
        <_>
          10 9 1 1 2.</_></rects>
      <tilted>0</tilted></_>
    <_>
      <rects>
        <_>
          10 8 9 6 -1.</_>
        <_>
          13 10 3 2 9.</_></rects>
      <tilted>0</tilted></_>
    <_>
      <rects>
        <_>
          10 8 9 3 -1.</_>
        <_>
          13 8 3 3 3.</_></rects>
      <tilted>0</tilted></_>
    <_>
      <rects>
        <_>
          10 9 8 2 -1.</_>
        <_>
          14 9 4 2 2.</_></rects>
      <tilted>0</tilted></_>
    <_>
      <rects>
        <_>
          10 11 5 3 -1.</_>
        <_>
          10 12 5 1 3.</_></rects>
      <tilted>0</tilted></_>
    <_>
      <rects>
        <_>
          10 13 1 3 -1.</_>
        <_>
          10 14 1 1 3.</_></rects>
      <tilted>0</tilted></_>
    <_>
      <rects>
        <_>
          10 13 4 2 -1.</_>
        <_>
          10 13 2 1 2.</_>
        <_>
          12 14 2 1 2.</_></rects>
      <tilted>0</tilted></_>
    <_>
      <rects>
        <_>
          11 1 3 6 -1.</_>
        <_>
          9 3 3 2 3.</_></rects>
      <tilted>1</tilted></_>
    <_>
      <rects>
        <_>
          11 11 5 3 -1.</_>
        <_>
          11 12 5 1 3.</_></rects>
      <tilted>0</tilted></_>
    <_>
      <rects>
        <_>
          11 12 6 3 -1.</_>
        <_>
          13 13 2 1 9.</_></rects>
      <tilted>0</tilted></_>
    <_>
      <rects>
        <_>
          11 12 6 2 -1.</_>
        <_>
          11 12 3 1 2.</_>
        <_>
          14 13 3 1 2.</_></rects>
      <tilted>0</tilted></_>
    <_>
      <rects>
        <_>
          12 0 7 3 -1.</_>
        <_>
          11 1 7 1 3.</_></rects>
      <tilted>1</tilted></_>
    <_>
      <rects>
        <_>
          12 0 8 3 -1.</_>
        <_>
          11 1 8 1 3.</_></rects>
      <tilted>1</tilted></_>
    <_>
      <rects>
        <_>
          12 2 7 4 -1.</_>
        <_>
          11 3 7 2 2.</_></rects>
      <tilted>1</tilted></_>
    <_>
      <rects>
        <_>
          12 2 8 10 -1.</_>
        <_>
          12 2 8 5 2.</_></rects>
      <tilted>1</tilted></_>
    <_>
      <rects>
        <_>
          12 3 7 4 -1.</_>
        <_>
          11 4 7 2 2.</_></rects>
      <tilted>1</tilted></_>
    <_>
      <rects>
        <_>
          12 3 7 8 -1.</_>
        <_>
          12 3 7 4 2.</_></rects>
      <tilted>1</tilted></_>
    <_>
      <rects>
        <_>
          12 6 2 7 -1.</_>
        <_>
          12 6 1 7 2.</_></rects>
      <tilted>1</tilted></_>
    <_>
      <rects>
        <_>
          12 8 1 4 -1.</_>
        <_>
          12 9 1 2 2.</_></rects>
      <tilted>0</tilted></_>
    <_>
      <rects>
        <_>
          12 8 3 1 -1.</_>
        <_>
          13 9 1 1 3.</_></rects>
      <tilted>1</tilted></_>
    <_>
      <rects>
        <_>
          12 9 2 2 -1.</_>
        <_>
          12 9 2 1 2.</_></rects>
      <tilted>1</tilted></_>
    <_>
      <rects>
        <_>
          12 12 6 4 -1.</_>
        <_>
          12 12 3 2 2.</_>
        <_>
          15 14 3 2 2.</_></rects>
      <tilted>0</tilted></_>
    <_>
      <rects>
        <_>
          13 0 2 6 -1.</_>
        <_>
          13 3 2 3 2.</_></rects>
      <tilted>0</tilted></_>
    <_>
      <rects>
        <_>
          13 3 3 1 -1.</_>
        <_>
          14 4 1 1 3.</_></rects>
      <tilted>1</tilted></_>
    <_>
      <rects>
        <_>
          13 3 4 1 -1.</_>
        <_>
          14 4 2 1 2.</_></rects>
      <tilted>1</tilted></_>
    <_>
      <rects>
        <_>
          13 3 1 6 -1.</_>
        <_>
          11 5 1 2 3.</_></rects>
      <tilted>1</tilted></_>
    <_>
      <rects>
        <_>
          13 7 1 4 -1.</_>
        <_>
          13 7 1 2 2.</_></rects>
      <tilted>1</tilted></_>
    <_>
      <rects>
        <_>
          13 10 1 3 -1.</_>
        <_>
          12 11 1 1 3.</_></rects>
      <tilted>1</tilted></_>
    <_>
      <rects>
        <_>
          13 16 4 2 -1.</_>
        <_>
          13 16 2 1 2.</_>
        <_>
          15 17 2 1 2.</_></rects>
      <tilted>0</tilted></_>
    <_>
      <rects>
        <_>
          14 0 6 4 -1.</_>
        <_>
          13 1 6 2 2.</_></rects>
      <tilted>1</tilted></_>
    <_>
      <rects>
        <_>
          14 1 2 5 -1.</_>
        <_>
          15 1 1 5 2.</_></rects>
      <tilted>0</tilted></_>
    <_>
      <rects>
        <_>
          14 2 3 2 -1.</_>
        <_>
          15 3 1 2 3.</_></rects>
      <tilted>1</tilted></_>
    <_>
      <rects>
        <_>
          14 3 3 1 -1.</_>
        <_>
          15 4 1 1 3.</_></rects>
      <tilted>1</tilted></_>
    <_>
      <rects>
        <_>
          14 3 3 2 -1.</_>
        <_>
          15 4 1 2 3.</_></rects>
      <tilted>1</tilted></_>
    <_>
      <rects>
        <_>
          14 4 3 1 -1.</_>
        <_>
          15 5 1 1 3.</_></rects>
      <tilted>1</tilted></_>
    <_>
      <rects>
        <_>
          14 4 3 4 -1.</_>
        <_>
          14 4 3 2 2.</_></rects>
      <tilted>1</tilted></_>
    <_>
      <rects>
        <_>
          14 9 6 5 -1.</_>
        <_>
          16 11 2 5 3.</_></rects>
      <tilted>1</tilted></_>
    <_>
      <rects>
        <_>
          14 10 6 4 -1.</_>
        <_>
          16 12 2 4 3.</_></rects>
      <tilted>1</tilted></_>
    <_>
      <rects>
        <_>
          14 12 2 6 -1.</_>
        <_>
          14 12 1 3 2.</_>
        <_>
          15 15 1 3 2.</_></rects>
      <tilted>0</tilted></_>
    <_>
      <rects>
        <_>
          15 0 5 3 -1.</_>
        <_>
          14 1 5 1 3.</_></rects>
      <tilted>1</tilted></_>
    <_>
      <rects>
        <_>
          15 0 5 4 -1.</_>
        <_>
          14 1 5 2 2.</_></rects>
      <tilted>1</tilted></_>
    <_>
      <rects>
        <_>
          15 0 5 6 -1.</_>
        <_>
          13 2 5 2 3.</_></rects>
      <tilted>1</tilted></_>
    <_>
      <rects>
        <_>
          15 1 5 3 -1.</_>
        <_>
          14 2 5 1 3.</_></rects>
      <tilted>1</tilted></_>
    <_>
      <rects>
        <_>
          15 3 3 2 -1.</_>
        <_>
          16 4 1 2 3.</_></rects>
      <tilted>1</tilted></_>
    <_>
      <rects>
        <_>
          15 3 5 6 -1.</_>
        <_>
          13 5 5 2 3.</_></rects>
      <tilted>1</tilted></_>
    <_>
      <rects>
        <_>
          15 4 2 1 -1.</_>
        <_>
          15 4 1 1 2.</_></rects>
      <tilted>1</tilted></_>
    <_>
      <rects>
        <_>
          15 6 3 1 -1.</_>
        <_>
          16 7 1 1 3.</_></rects>
      <tilted>1</tilted></_>
    <_>
      <rects>
        <_>
          16 0 2 4 -1.</_>
        <_>
          15 1 2 2 2.</_></rects>
      <tilted>1</tilted></_>
    <_>
      <rects>
        <_>
          16 0 4 6 -1.</_>
        <_>
          14 2 4 2 3.</_></rects>
      <tilted>1</tilted></_>
    <_>
      <rects>
        <_>
          16 1 2 10 -1.</_>
        <_>
          16 1 1 5 2.</_>
        <_>
          17 6 1 5 2.</_></rects>
      <tilted>0</tilted></_>
    <_>
      <rects>
        <_>
          16 1 4 3 -1.</_>
        <_>
          15 2 4 1 3.</_></rects>
      <tilted>1</tilted></_>
    <_>
      <rects>
        <_>
          16 3 1 14 -1.</_>
        <_>
          16 10 1 7 2.</_></rects>
      <tilted>0</tilted></_>
    <_>
      <rects>
        <_>
          16 5 4 10 -1.</_>
        <_>
          17 5 2 10 2.</_></rects>
      <tilted>0</tilted></_>
    <_>
      <rects>
        <_>
          16 5 4 10 -1.</_>
        <_>
          18 5 2 10 2.</_></rects>
      <tilted>0</tilted></_>
    <_>
      <rects>
        <_>
          16 6 4 9 -1.</_>
        <_>
          17 6 2 9 2.</_></rects>
      <tilted>0</tilted></_>
    <_>
      <rects>
        <_>
          16 10 4 6 -1.</_>
        <_>
          17 11 2 6 2.</_></rects>
      <tilted>1</tilted></_>
    <_>
      <rects>
        <_>
          16 11 2 3 -1.</_>
        <_>
          15 12 2 1 3.</_></rects>
      <tilted>1</tilted></_>
    <_>
      <rects>
        <_>
          16 11 3 4 -1.</_>
        <_>
          15 12 3 2 2.</_></rects>
      <tilted>1</tilted></_>
    <_>
      <rects>
        <_>
          16 12 1 3 -1.</_>
        <_>
          15 13 1 1 3.</_></rects>
      <tilted>1</tilted></_>
    <_>
      <rects>
        <_>
          16 13 1 2 -1.</_>
        <_>
          16 13 1 1 2.</_></rects>
      <tilted>1</tilted></_>
    <_>
      <rects>
        <_>
          16 13 3 4 -1.</_>
        <_>
          17 14 1 4 3.</_></rects>
      <tilted>1</tilted></_>
    <_>
      <rects>
        <_>
          16 13 2 3 -1.</_>
        <_>
          15 14 2 1 3.</_></rects>
      <tilted>1</tilted></_>
    <_>
      <rects>
        <_>
          16 13 3 3 -1.</_>
        <_>
          15 14 3 1 3.</_></rects>
      <tilted>1</tilted></_>
    <_>
      <rects>
        <_>
          16 14 2 4 -1.</_>
        <_>
          16 14 1 2 2.</_>
        <_>
          17 16 1 2 2.</_></rects>
      <tilted>0</tilted></_>
    <_>
      <rects>
        <_>
          16 14 2 2 -1.</_>
        <_>
          16 14 2 1 2.</_></rects>
      <tilted>1</tilted></_>
    <_>
      <rects>
        <_>
          17 0 3 9 -1.</_>
        <_>
          14 3 3 3 3.</_></rects>
      <tilted>1</tilted></_>
    <_>
      <rects>
        <_>
          17 3 3 2 -1.</_>
        <_>
          18 4 1 2 3.</_></rects>
      <tilted>1</tilted></_>
    <_>
      <rects>
        <_>
          17 4 2 6 -1.</_>
        <_>
          17 4 1 3 2.</_>
        <_>
          18 7 1 3 2.</_></rects>
      <tilted>0</tilted></_>
    <_>
      <rects>
        <_>
          17 8 3 4 -1.</_>
        <_>
          18 8 1 4 3.</_></rects>
      <tilted>0</tilted></_>
    <_>
      <rects>
        <_>
          17 8 3 4 -1.</_>
        <_>
          17 10 3 2 2.</_></rects>
      <tilted>0</tilted></_>
    <_>
      <rects>
        <_>
          17 9 2 10 -1.</_>
        <_>
          17 9 1 5 2.</_>
        <_>
          18 14 1 5 2.</_></rects>
      <tilted>0</tilted></_>
    <_>
      <rects>
        <_>
          17 9 3 2 -1.</_>
        <_>
          17 10 3 1 2.</_></rects>
      <tilted>0</tilted></_>
    <_>
      <rects>
        <_>
          17 10 3 7 -1.</_>
        <_>
          18 11 1 7 3.</_></rects>
      <tilted>1</tilted></_>
    <_>
      <rects>
        <_>
          17 12 3 4 -1.</_>
        <_>
          18 13 1 4 3.</_></rects>
      <tilted>1</tilted></_>
    <_>
      <rects>
        <_>
          17 12 3 5 -1.</_>
        <_>
          18 13 1 5 3.</_></rects>
      <tilted>1</tilted></_>
    <_>
      <rects>
        <_>
          17 13 3 4 -1.</_>
        <_>
          18 14 1 4 3.</_></rects>
      <tilted>1</tilted></_></features></cascade>
</opencv_storage>
